tree
version=v3
num_class=1
num_tree_per_iteration=1
label_index=0
max_feature_idx=29
objective=binary sigmoid:1
feature_names=Column_0 Column_1 Column_2 Column_3 Column_4 Column_5 Column_6 Column_7 Column_8 Column_9 Column_10 Column_11 Column_12 Column_13 Column_14 Column_15 Column_16 Column_17 Column_18 Column_19 Column_20 Column_21 Column_22 Column_23 Column_24 Column_25 Column_26 Column_27 Column_28 Column_29
feature_infos=[-1.9985704449539565:1.6423838904867094] [-28.8964973979243:1.2572668522144754] [-44.262501310141204:11.666595662135478] [-32.05676436383574:2.7205591723981879] [-4.0174518181775367:11.655267985378199] [-82.362748823156565:25.200788620790942] [-19.626160984691964:54.994218745251985] [-30.046473937070552:97.760685057244885] [-42.459753912606715:16.142389208656283] [-10.143397580053183:9.4757851666564417] [-21.384525164333429:14.112581615474477] [-4.595134494702366:11.797133502259198] [-18.744692820797169:4.4855639824335816] [-4.0300202196615009:7.1665744946079473] [-20.089031055533098:8.1078229368490664] [-4.9160841017421868:9.7008874277444459] [-16.128104928979194:19.761167970231142] [-28.348023234014956:10.868469425958924] [-11.145014790175985:5.0143425978804892] [-5.7439656548097267:6.8690569794521492] [-70.478988753814349:33.932157685396895] [-31.236716823899229:37.121994304526567] [-12.255141421050253:11.406062018361917] [-52.346646845792343:35.924155072120826] [-4.6724805826624634:7.5800216135218959] [-16.656255596534912:14.401834836195933] [-4.6483379743088671:7.2978422843419404] [-24.390931220033213:78.313678004859995] [-46.601413062936153:102.2222155564276] [-0.35250781748859789:101.99703608771617]
tree_sizes=6715

Tree=0
num_leaves=63
num_cat=0
split_feature=14 10 7 27 26 21 3 7 25 15 16 4 4 3 28 14 4 10 3 18 25 1 21 29 10 1 4 4 1 10 16 20 13 1 1 10 2 1 1 7 21 7 29 3 15 3 13 26 15 13 3 19 3 29 10 1 10 1 15 15 4 26
split_gain=47602 66963.8 5505 1500.99 5232.24 1276.87 472.206 462.764 275.288 208.721 115.969 3319.62 231.214 51.6135 170.519 19.2162 102.724 206.229 265.616 126.008 695.081 173.83 37.6736 22.3412 78.9177 257.09 51.1556 11.8665 46.8943 50.5394 179.888 6.56829 52.0923 179.888 21.3991 139.065 84.3579 145.294 3.55838 55.6619 38.1999 2.5519 17.0126 41.1391 13.6544 44.6292 7.36224 48.8538 50.6974 19.3412 38.672 4.21814 54.5877 2.18792 21.1611 35.4154 1.45026 33.1958 1.11806 13.9252 43.8909 0.932372
threshold=-3.7913231851607549 -1.7276428796125987 0.39858663925209503 2.6213833293927844 -0.56872265779949527 1.8440135539976439 -1.6204810189367158 -0.054822905375450023 2.0400600141606975 -1.3796041809283393 -3.2604872478994555 1.5577999360007999 1.0642764549552981 -2.1207637867494111 0.8816311192441143 -1.4818324543645016 1.5577999360007999 -0.76461429909577083 -1.2015311472136185 1.3160182211927367 0.6759921255339193 0.95172185809561471 0.40880526255626343 0.70155724123816265 -1.2888075793665916 -0.1914904428453961 0.81206915645099687 3.3609521028708476 0.21358988511982552 2.2354669503228428 -0.53921673717565144 -1.2712440449874334 -1.9626800984831789 -1.0618893567643657 -0.9548759950831488 1.6204213075820582 -0.77763053309893426 -0.8073339314621707 1.0682762074540439 0.72919782296959224 0.38691892963655 1.0403210997418937 -0.35248789827438071 -0.083101197771835209 2.195013467248295 0.56482399307948017 -1.4998118129049445 -1.7444683838342792 1.4944966704880767 -1.5324733740562915 -1.0000000180025095e-35 2.6547647965464747 -1.3857735526829278 0.37458333986431741 -1.4658155011343077 -0.39152657070313329 -1.6184629149726015 -0.39152657070313329 1.3768557097973966 1.3951126676248113 0.40971471621605043 2.945444162814074
decision_type=2 2 2 2 2 2 2 2 2 2 2 2 2 2 2 2 2 2 2 2 2 2 2 2 2 2 2 2 2 2 2 2 2 2 2 2 2 2 2 2 2 2 2 2 2 2 2 2 2 2 2 2 2 2 2 2 2 2 2 2 2 2
left_child=1 2 3 7 -5 9 -4 13 -6 -3 11 12 -2 -1 -15 16 23 18 -18 22 21 -21 -19 38 25 26 -25 31 29 -29 -31 32 33 -17 -34 36 37 -36 53 40 -40 61 43 -43 46 -46 47 -44 49 -49 -51 56 -53 58 55 -55 57 -48 -12 60 -60 -33
right_child=10 5 6 4 8 -7 -8 -9 -10 -11 15 -13 -14 14 -16 27 17 19 -20 20 -22 -23 -24 24 -26 -27 -28 28 -30 30 -32 41 34 -35 35 -37 -38 -39 39 -41 -42 42 44 -45 45 -47 51 48 -50 50 -52 52 -54 54 -56 -57 -58 -59 59 -61 -62 -63
leaf_value=23.085598008988345 -6.4272458174032154 -1.0612742126050101 5.3778917131527679 -4.4597228956438446 23.085598008988004 6.9876831945922921 -6.4272458174032128 14.231744861069753 16.761417189046426 -6.4272458174032154 -6.4272458174032154 15.036640601789596 -0.52467705212522198 23.085598008987805 17.183029243708749 -6.4272458174032145 -6.4272458174032128 -6.4272458174032154 2.4266073305137725 -6.4272458174032154 4.3046973921931917 -1.5084385130048394 -4.4597228956438446 -6.4272458174032145 -6.4272458174032154 -0.52467705212510651 -3.4759614347642169 -6.4272458174032154 -3.7442600150041114 -0.52467705212522198 -6.4272458174032145 -6.4250689015646438 -6.4272458174032154 -0.52467705212518378 -0.52467705212522198 -2.4921999738844756 -6.4272458174032154 -6.4272458174032137 -6.4272458174032154 -3.4759614347642169 -4.4597228956438446 -3.4759614347642169 -3.7442600150040959 -6.4272458174032128 -6.4272458174032137 -3.4759614347642169 -6.4272458174032154 -6.4272458174032154 -3.7442600150041114 -6.4272458174032137 -3.475961434764046 -3.4759614347642169 -6.4272458174032145 -6.4272458174032137 -6.4272458174032154 -3.4759614347642169 -6.4272458174032154 -4.6911961805564371 -6.4272458174032137 -6.4272458174032154 -3.4759614347642169 -6.3761855339665514
leaf_weight=0.22532562434207648 0.80134601739700784 0.018635953892953694 0.01694177626632154 0.02541266439948231 0.062684572185389698 0.018635953892953694 0.01694177626632154 0.01694177626632154 0.023718486772850156 0.65734091913327464 10.104075365234156 0.018635953892953694 0.01694177626632154 0.044048618292436004 0.01694177626632154 0.054213684052228928 0.01694177626632154 0.57093786017503667 0.01694177626632154 0.15417016402352601 0.018635953892953694 0.020330131519585848 0.02541266439948231 0.11012154573109001 0.46251049207057882 0.02541266439948231 0.01694177626632154 0.63362243236042459 0.018635953892953694 0.01694177626632154 0.054213684052228928 252.65101528202649 4.0761913696769625 0.016941776266321429 0.01694177626632154 0.02541266439948231 0.57602039305493136 0.027106842026114464 0.84370045806281346 0.01694177626632154 0.02541266439948231 0.01694177626632154 0.018635953892953583 0.038966085412540319 0.052519506425597551 0.01694177626632154 0.62684572185389698 0.9385744051542132 0.018635953892953694 0.032189374906010926 0.016941776266320541 0.01694177626632154 0.20838384807575572 0.02541266439948231 0.36594236735254604 0.01694177626632154 12.686002068221566 0.028801019652742066 0.049131151172333243 0.76068575435783714 0.01694177626632154 0.97923466819338401
leaf_count=133 473 11 10 15 37 11 10 10 14 388 5964 11 10 26 10 32 10 337 10 91 11 12 15 65 273 15 10 374 11 10 32 149129 2406 10 10 15 340 16 498 10 15 10 11 23 31 10 370 554 11 19 10 10 123 15 216 10 7488 17 29 449 10 578
internal_value=-6.37716 3.80387 18.8536 20.4355 15.4838 -5.92337 -0.524677 22.2612 21.3495 -6.27931 -6.41754 -5.82982 -6.30504 22.7363 21.446 -6.41925 -6.36138 -5.81999 -2.00032 -5.98392 -4.87394 -5.85418 -6.3434 -6.39609 -6.10204 -5.11556 -6.03374 -6.42213 -6.2199 -6.28536 -5.02187 -6.42267 -6.36465 -5.02187 -6.38489 -6.1174 -6.26597 -4.15703 -6.41089 -6.31439 -6.36972 -6.42371 -6.40346 -5.53292 -6.40678 -5.70742 -6.41011 -6.2809 -6.32788 -6.37662 -5.40956 -6.41987 -6.20534 -6.41843 -6.30479 -5.24673 -6.4235 -6.35099 -6.42267 -6.36677 -5.67051 -6.42488
internal_weight=0 1.14357 0.448957 0.415074 0.111816 0.694613 0.0338836 0.303258 0.0864031 0.675977 288.364 0.836924 0.818288 0.286316 0.0609904 287.527 13.6635 0.82337 0.0338836 0.789487 0.193136 0.1745 0.596351 12.8402 0.614986 0.152476 0.127063 273.864 0.723414 0.704778 0.0711555 273.14 4.79283 0.0711555 4.72167 0.645482 0.620069 0.0440486 12.2252 0.886055 0.869113 268.348 14.7173 0.0559079 14.6614 0.0694613 14.592 1.02498 1.00634 0.987706 0.0491312 13.567 0.225326 11.3391 0.408297 0.0423544 13.3416 0.655647 10.9308 0.826759 0.0660729 253.63
internal_count=170884 675 265 245 66 410 20 179 51 399 170209 494 483 169 36 169715 8065 486 20 466 114 103 352 7579 363 90 75 161650 427 416 42 161223 2829 42 2787 381 366 26 7216 523 513 158394 8687 33 8654 41 8613 605 594 583 29 8008 133 6693 241 25 7875 387 6452 488 39 149707
is_linear=0
shrinkage=1


end of trees

feature_importances:
Column_1=9
Column_3=7
Column_10=7
Column_4=6
Column_15=5
Column_7=4
Column_13=3
Column_21=3
Column_26=3
Column_29=3
Column_14=2
Column_16=2
Column_25=2
Column_2=1
Column_18=1
Column_19=1
Column_20=1
Column_27=1
Column_28=1

parameters:
[boosting: gbdt]
[objective: binary]
[metric: binary_logloss]
[tree_learner: serial]
[device_type: cpu]
[data: ]
[valid: ]
[num_iterations: 10000]
[learning_rate: 0.05]
[num_leaves: 63]
[num_threads: 0]
[deterministic: 0]
[force_col_wise: 0]
[force_row_wise: 0]
[histogram_pool_size: -1]
[max_depth: -1]
[min_data_in_leaf: 10]
[min_sum_hessian_in_leaf: 0.001]
[bagging_fraction: 0.9]
[pos_bagging_fraction: 1]
[neg_bagging_fraction: 1]
[bagging_freq: 0]
[bagging_seed: 18467]
[feature_fraction: 0.9]
[feature_fraction_bynode: 1]
[feature_fraction_seed: 26500]
[extra_trees: 0]
[extra_seed: 15724]
[early_stopping_round: 0]
[first_metric_only: 0]
[max_delta_step: 0]
[lambda_l1: 0]
[lambda_l2: 0]
[linear_lambda: 0]
[min_gain_to_split: 0]
[drop_rate: 0.1]
[max_drop: 50]
[skip_drop: 0.5]
[xgboost_dart_mode: 0]
[uniform_drop: 0]
[drop_seed: 6334]
[top_rate: 0.2]
[other_rate: 0.1]
[min_data_per_group: 100]
[max_cat_threshold: 32]
[cat_l2: 10]
[cat_smooth: 10]
[max_cat_to_onehot: 4]
[top_k: 20]
[monotone_constraints: ]
[monotone_constraints_method: basic]
[monotone_penalty: 0]
[feature_contri: ]
[forcedsplits_filename: ]
[refit_decay_rate: 0.9]
[cegb_tradeoff: 1]
[cegb_penalty_split: 0]
[cegb_penalty_feature_lazy: ]
[cegb_penalty_feature_coupled: ]
[path_smooth: 0]
[interaction_constraints: ]
[verbosity: -1]
[saved_feature_importance_type: 0]
[linear_tree: 0]
[max_bin: 255]
[max_bin_by_feature: ]
[min_data_in_bin: 3]
[bin_construct_sample_cnt: 200000]
[data_random_seed: 41]
[is_enable_sparse: 1]
[enable_bundle: 1]
[use_missing: 1]
[zero_as_missing: 0]
[feature_pre_filter: 1]
[pre_partition: 0]
[two_round: 0]
[header: 0]
[label_column: ]
[weight_column: ]
[group_column: ]
[ignore_column: ]
[categorical_feature: ]
[forcedbins_filename: ]
[precise_float_parser: 0]
[objective_seed: 19169]
[num_class: 1]
[is_unbalance: 0]
[scale_pos_weight: 1]
[sigmoid: 1]
[boost_from_average: 1]
[reg_sqrt: 0]
[alpha: 0.9]
[fair_c: 1]
[poisson_max_delta_step: 0.7]
[tweedie_variance_power: 1.5]
[lambdarank_truncation_level: 30]
[lambdarank_norm: 1]
[label_gain: ]
[eval_at: ]
[multi_error_top_k: 1]
[auc_mu_weights: ]
[num_machines: 1]
[local_listen_port: 12400]
[time_out: 120]
[machine_list_filename: ]
[machines: ]
[gpu_platform_id: -1]
[gpu_device_id: -1]
[gpu_use_dp: 0]
[num_gpu: 1]

end of parameters

pandas_categorical:null
