tree
version=v3
num_class=1
num_tree_per_iteration=1
label_index=0
max_feature_idx=29
objective=binary sigmoid:1
feature_names=Column_0 Column_1 Column_2 Column_3 Column_4 Column_5 Column_6 Column_7 Column_8 Column_9 Column_10 Column_11 Column_12 Column_13 Column_14 Column_15 Column_16 Column_17 Column_18 Column_19 Column_20 Column_21 Column_22 Column_23 Column_24 Column_25 Column_26 Column_27 Column_28 Column_29
feature_infos=[-1.9985704449539565:1.6422363912949176] [-28.8964973979243:1.2572668522144754] [-44.262501310141204:13.426034875172737] [-32.05676436383574:2.8030740243579517] [-4.0174518181775367:11.813816106786495] [-82.362748823156565:25.200788620790942] [-19.626160984691964:54.994218745251985] [-35.313554211474241:97.760685057244885] [-61.657363637268013:16.495614508450078] [-12.143223978698661:9.4757851666564417] [-22.636504924949865:14.112581615474477] [-4.7075543104680149:11.453907050293585] [-18.744692820797169:7.8717670660549279] [-5.8230416915862619:7.1665744946079473] [-19.678933173749293:11.006210577935294] [-4.9160841017421868:9.7008874277444459] [-16.128104928979194:19.761167970231142] [-29.69792159177188:10.868469425958924] [-11.340282685793415:6.0189943765793839] [-8.8608850573076676:6.8446638048787101] [-70.478988753814349:50.981812196560995] [-47.532147931848542:37.121994304526567] [-15.076582705988205:14.482231632102309] [-71.447487496675336:35.924155072120826] [-4.6919572207481703:7.5800216135218959] [-19.718298824889818:14.401834836195933] [-5.2555233069721634:7.2978422843419404] [-23.645377024722208:78.313678004859995] [-46.601413062936153:102.2222155564276] [-0.35250781748859789:101.99703608771617]
tree_sizes=6735

Tree=0
num_leaves=63
num_cat=0
split_feature=14 7 10 26 26 10 4 4 25 4 5 19 18 15 16 4 15 14 4 21 6 29 1 18 22 4 1 16 21 26 29 6 1 2 22 14 29 7 6 29 13 24 20 16 12 21 19 4 14 1 23 6 26 10 12 3 15 15 20 13 1 19
split_gain=49496.7 63986.8 3659.45 3099.33 6123.29 749.483 1279.35 737.075 215.881 182.826 207.366 133.91 122.801 273.366 95.8204 3099.66 30.8656 18.5168 69.6836 215.411 266.532 159.982 70.1291 360.928 47.9933 21.117 49.9658 50.8876 181.461 51.2253 20.4618 82.6047 133.91 56.354 8.13527 49.1372 36.593 19.4267 38.8054 4.08467 45.4514 186.509 2.92336 57.9545 423.331 1.68834 17.3988 40.7201 12.1989 46.3533 8.35285 50.6453 1.69912 52.432 19.9474 38.8054 1.51056 40.6749 1.37693 28.1522 29.6146 1.06091
threshold=-3.7999358916157404 -0.54304518089035658 -2.4724258529948604 -0.56862946775620404 -0.653844615487018 -1.8583583165466282 1.3402698551530943 0.84908995350393668 2.2281663366163218 0.95368342036282072 1.0912843178915173 2.045733965118854 2.5535866216978165 -0.42433798047168142 -3.2523118002357463 1.1789945941799724 1.3301291154341388 -1.6807398466175225 1.3402698551530943 0.63440414377415488 0.76837067997976749 -0.34942033928494592 0.93609790157275319 1.3123288498742303 -2.8433946919742898 3.3608718333484733 0.21805758399830039 -0.54435955773341271 -0.45430956581756482 0.35814317590325068 0.74298920680974967 -0.86869768612055365 0.59349143364438584 0.68653952327054213 2.4457867379417904 -1.4354855695063997 -0.34950001614181436 2.4226071762613759 0.84845149610653581 0.068644128703739177 1.1140994187625701 0.27096264287123034 -1.8273141099772985 -1.7952226932281559 -0.19186255093187474 -1.1179996271217048 3.004807443913982 0.21797567175846883 -1.5447998560686746 -0.51641717422427913 1.7990838308937467 -0.51236704830386048 2.4923126567925649 1.4968407607856642 1.3499499402282995 0.53362355872827327 1.3726104326850523 1.3935435746491478 4.6093863480808137 -1.5028800957059369 -1.8160700878246834 -3.0105151563946051
decision_type=2 2 2 2 2 2 2 2 2 2 2 2 2 2 2 2 2 2 2 2 2 2 2 2 2 2 2 2 2 2 2 2 2 2 2 2 2 2 2 2 2 2 2 2 2 2 2 2 2 2 2 2 2 2 2 2 2 2 2 2 2 2
left_child=1 3 -3 4 7 6 -4 -1 9 -5 16 -6 -7 -14 15 -2 -11 18 24 21 -21 -20 -23 -24 -16 34 27 28 -27 -30 39 32 -32 -33 42 -36 -37 -38 -39 56 -41 -42 43 44 -19 46 48 -48 49 -44 -50 -52 58 54 -54 -56 -26 -58 61 60 -60 -47
right_child=14 2 5 8 11 12 -8 -9 -10 10 -12 -13 13 -15 17 -17 -18 25 19 20 -22 22 23 -25 30 26 -28 -29 29 -31 31 33 -34 -35 35 36 37 38 -40 40 41 -43 45 -45 -46 52 47 -49 50 -51 51 -53 53 -55 55 -57 57 -59 59 -61 -62 -63
leaf_value=11.338070178069927 -6.4306997592855319 15.780262662409008 -6.4306997592855293 17.260993490521745 -6.4306997592855293 -6.4306997592855319 11.338070178069927 23.18391680297481 17.631176197550516 23.18391680297518 17.260993490521745 -0.50777644683371026 0.40344252431281635 -6.4306997592855302 -3.9628150457637945 11.338070178070275 21.44188053460606 1.6460138486033573 -1.8746049035532986 2.4536852093922006 -6.4306997592855284 -6.4306997592855311 -6.4306997592855311 0.9729543812793171 -6.4306997592855319 -0.50777644683371026 -3.4692381030596193 -6.4306997592855319 -3.4692381030596193 -6.4306997592855311 -6.4306997592855293 -6.4306997592855311 -0.50777644683371026 -3.4692381030596193 -3.7384618899892175 -4.4563919884682095 -6.4306997592855319 -3.4692381030596193 -6.4306997592855302 -6.4306997592855311 -6.4306997592855311 -0.50777644683371026 -6.4306997592855311 -6.4306997592855319 -6.4306997592855311 -6.3737485735888759 -3.4692381030596002 -6.4306997592855302 -6.4306997592855319 -3.4692381030596002 -3.4692381030596193 -6.4306997592855311 -6.4306997592855319 -3.7384618899892175 -3.4692381030596002 -6.4306997592855302 -4.3153700048384067 -6.4306997592855319 -6.4306997592855284 -6.4306997592855319 -3.4692381030596193 -6.4288037442937735
leaf_weight=0.016883554635569453 0.79521542333532025 0.020260265562683344 0.02532533195335418 0.016883554635569453 0.021948621026240289 0.58248263492714503 0.016883554635569453 0.059092441224493086 0.027013687416911125 0.22286292118951678 0.016883554635569453 0.016883554635569453 0.021948621026240289 0.043897242052480578 0.020260265562682345 0.02532533195335418 0.028702042880468071 0.018571910099126399 0.021948621026240289 0.016883554635569453 0.016883554635569453 0.57572921307291913 0.087794484104961157 0.020260265562683344 7.6448735389858413 0.016883554635569453 0.016883554635569453 0.57404085760936041 0.016883554635569453 0.1080547496676445 0.021948621026240289 0.33091767085716206 0.016883554635569453 0.016883554635569453 0.018571910099126288 0.025325331953354069 0.953920836909673 0.016883554635569453 0.032078753807581961 0.72768120479304421 0.062469152151606977 0.016883554635569453 0.060780796688050032 2.566300304606556 0.12831501523032818 0.87794484104961057 0.016883554635569342 0.037143820198252797 4.2107585261110207 0.016883554635569342 0.016883554635569453 0.099612972349859663 2.0496635327581316 0.018571910099126288 0.016883554635569342 0.032078753807581961 0.023636976489797124 0.58923605678137392 0.016883554635569453 0.65001685346942295 0.016883554635569453 263.71099327481352
leaf_count=10 471 12 15 10 13 345 10 35 16 132 10 10 13 26 12 15 17 11 13 10 10 341 52 12 4528 10 10 340 10 64 13 196 10 10 11 15 565 10 19 431 37 10 36 1520 76 520 10 22 2494 10 10 59 1214 11 10 19 14 349 10 385 10 156194
internal_value=-6.38062 4.02669 -5.16452 19.3211 12.2962 -5.77903 0.676808 20.5515 21.9033 22.3077 22.6252 -3.85552 -6.19934 -4.15265 -6.42183 -5.88228 22.9852 -6.42337 -6.35725 -5.88979 -1.98851 -6.07646 -6.21133 -5.04251 -6.39375 -6.42581 -6.15775 -6.22116 -5.37303 -6.0305 -6.39896 -6.04274 -3.85552 -6.28694 -6.42653 -6.2874 -6.33344 -6.38084 -5.40951 -6.41415 -6.30679 -5.1705 -6.42706 -6.37541 -5.40951 -6.42757 -6.39706 -5.50524 -6.408 -5.7869 -6.41915 -6.0015 -6.42808 -6.38347 -6.40687 -5.40951 -6.42464 -6.34912 -6.42844 -6.35758 -4.94997 -6.42862
internal_weight=0 1.13795 0.710798 0.427154 0.114808 0.690537 0.0422089 0.075976 0.312346 0.285332 0.268449 0.0388322 0.648328 0.0658459 287.373 0.820541 0.251565 286.553 10.2112 0.7395 0.0337671 0.705733 0.683784 0.108055 9.47167 276.342 0.732746 0.715863 0.141822 0.124938 9.45141 0.386633 0.0388322 0.347801 275.609 1.04678 1.02821 1.00288 0.0489623 9.06478 0.807034 0.0793527 274.562 2.71319 0.146887 271.849 4.45895 0.0540274 4.40492 0.0776644 4.32726 0.116497 267.39 2.1172 2.09863 0.0489623 8.25775 0.612873 265.273 0.683784 0.0337671 264.589
internal_count=170883 674 421 253 68 409 25 45 185 169 159 23 384 39 170209 486 149 169723 6048 438 20 418 405 64 5610 163675 434 424 84 74 5598 229 23 206 163241 620 609 594 29 5369 478 47 162621 1607 87 161014 2641 32 2609 46 2563 69 158373 1254 1243 29 4891 363 157119 405 20 156714
is_linear=0
shrinkage=1


end of trees

feature_importances:
Column_4=7
Column_1=5
Column_6=4
Column_14=4
Column_15=4
Column_26=4
Column_29=4
Column_10=3
Column_16=3
Column_19=3
Column_21=3
Column_7=2
Column_12=2
Column_13=2
Column_18=2
Column_20=2
Column_22=2
Column_2=1
Column_3=1
Column_5=1
Column_23=1
Column_24=1
Column_25=1

parameters:
[boosting: gbdt]
[objective: binary]
[metric: binary_logloss]
[tree_learner: serial]
[device_type: cpu]
[data: ]
[valid: ]
[num_iterations: 10000]
[learning_rate: 0.05]
[num_leaves: 63]
[num_threads: 0]
[deterministic: 0]
[force_col_wise: 0]
[force_row_wise: 0]
[histogram_pool_size: -1]
[max_depth: -1]
[min_data_in_leaf: 10]
[min_sum_hessian_in_leaf: 0.001]
[bagging_fraction: 0.9]
[pos_bagging_fraction: 1]
[neg_bagging_fraction: 1]
[bagging_freq: 0]
[bagging_seed: 18467]
[feature_fraction: 0.9]
[feature_fraction_bynode: 1]
[feature_fraction_seed: 26500]
[extra_trees: 0]
[extra_seed: 15724]
[early_stopping_round: 0]
[first_metric_only: 0]
[max_delta_step: 0]
[lambda_l1: 0]
[lambda_l2: 0]
[linear_lambda: 0]
[min_gain_to_split: 0]
[drop_rate: 0.1]
[max_drop: 50]
[skip_drop: 0.5]
[xgboost_dart_mode: 0]
[uniform_drop: 0]
[drop_seed: 6334]
[top_rate: 0.2]
[other_rate: 0.1]
[min_data_per_group: 100]
[max_cat_threshold: 32]
[cat_l2: 10]
[cat_smooth: 10]
[max_cat_to_onehot: 4]
[top_k: 20]
[monotone_constraints: ]
[monotone_constraints_method: basic]
[monotone_penalty: 0]
[feature_contri: ]
[forcedsplits_filename: ]
[refit_decay_rate: 0.9]
[cegb_tradeoff: 1]
[cegb_penalty_split: 0]
[cegb_penalty_feature_lazy: ]
[cegb_penalty_feature_coupled: ]
[path_smooth: 0]
[interaction_constraints: ]
[verbosity: -1]
[saved_feature_importance_type: 0]
[linear_tree: 0]
[max_bin: 255]
[max_bin_by_feature: ]
[min_data_in_bin: 3]
[bin_construct_sample_cnt: 200000]
[data_random_seed: 41]
[is_enable_sparse: 1]
[enable_bundle: 1]
[use_missing: 1]
[zero_as_missing: 0]
[feature_pre_filter: 1]
[pre_partition: 0]
[two_round: 0]
[header: 0]
[label_column: ]
[weight_column: ]
[group_column: ]
[ignore_column: ]
[categorical_feature: ]
[forcedbins_filename: ]
[precise_float_parser: 0]
[objective_seed: 19169]
[num_class: 1]
[is_unbalance: 0]
[scale_pos_weight: 1]
[sigmoid: 1]
[boost_from_average: 1]
[reg_sqrt: 0]
[alpha: 0.9]
[fair_c: 1]
[poisson_max_delta_step: 0.7]
[tweedie_variance_power: 1.5]
[lambdarank_truncation_level: 30]
[lambdarank_norm: 1]
[label_gain: ]
[eval_at: ]
[multi_error_top_k: 1]
[auc_mu_weights: ]
[num_machines: 1]
[local_listen_port: 12400]
[time_out: 120]
[machine_list_filename: ]
[machines: ]
[gpu_platform_id: -1]
[gpu_device_id: -1]
[gpu_use_dp: 0]
[num_gpu: 1]

end of parameters

pandas_categorical:null
