tree
version=v3
num_class=1
num_tree_per_iteration=1
label_index=0
max_feature_idx=29
objective=binary sigmoid:1
feature_names=Column_0 Column_1 Column_2 Column_3 Column_4 Column_5 Column_6 Column_7 Column_8 Column_9 Column_10 Column_11 Column_12 Column_13 Column_14 Column_15 Column_16 Column_17 Column_18 Column_19 Column_20 Column_21 Column_22 Column_23 Column_24 Column_25 Column_26 Column_27 Column_28 Column_29
feature_infos=[-1.9985493736408435:1.6423838904867094] [-28.8964973979243:1.2529509310115881] [-44.262501310141204:13.426034875172737] [-32.05676436383574:2.8030740243579517] [-4.0174518181775367:11.813816106786495] [-82.362748823156565:25.200788620790942] [-19.626160984691964:54.994218745251985] [-35.313554211474241:97.760685057244885] [-61.657363637268013:16.495614508450078] [-12.143223978698661:9.4757851666564417] [-22.636504924949865:14.033361322719772] [-4.7075543104680149:11.797133502259198] [-18.744692820797169:7.8717670660549279] [-5.8230416915862619:7.1665744946079473] [-20.089031055533098:11.006210577935294] [-4.7984663425003404:9.7008874277444459] [-15.185399095000497:19.761167970231142] [-29.69792159177188:10.868469425958924] [-11.340282685793415:6.0189943765793839] [-8.8608850573076676:6.8690569794521492] [-70.478988753814349:50.981812196560995] [-47.532147931848542:37.121994304526567] [-15.076582705988205:14.482231632102309] [-71.447487496675336:35.924155072120826] [-4.6919572207481703:7.5800216135218959] [-19.718298824889818:14.401834836195933] [-5.2555233069721634:7.2978422843419404] [-24.390931220033213:78.313678004859995] [-46.601413062936153:102.2222155564276] [-0.35250781748859789:101.99703608771617]
tree_sizes=6706

Tree=0
num_leaves=63
num_cat=0
split_feature=14 7 10 5 26 27 4 4 25 4 16 10 4 2 15 7 28 8 14 4 10 13 25 1 18 22 21 2 9 23 29 13 20 1 4 10 1 12 1 4 19 3 29 15 7 15 12 12 12 1 24 10 15 16 24 24 3 1 13 12 13 24
split_gain=46049.3 61959 3255.83 3080.09 2920.03 6102.25 734.542 389.115 444.688 300.261 146.543 3838.67 230.992 133.449 116.017 401.663 96.7939 123.673 24.3113 149.473 409.288 195.675 1202.38 79.5976 342.46 40.9526 27.9261 29.5128 16.2999 41.6652 8.60435 49.5054 7.91107 69.6373 235.499 27.0077 30.9182 21.4883 37.1643 3.42743 10.5384 47.452 8.84783 44.9482 45.5921 184.776 16.3915 41.1391 13.8787 44.6292 6.09851 52.6788 4.07249 54.8689 3.35228 26.0301 30.9182 14.4531 50.2242 168.645 7.34368 50.94
threshold=-3.8058438404254584 -0.54273333348996489 -1.7363226231616713 1.0049443403525615 -0.55892192878538705 2.6619596303940321 0.85041537967859149 0.95510222699043834 2.0451998553059627 1.1424262646713228 -3.2623788904309299 -2.4856329762361216 1.1424262646713228 3.3046727247279351 -0.43339105165969233 0.80856091427243937 1.8732065088808698 1.0654767770508269 -1.4422625941290053 1.6420986134588238 -1.3282622608232391 -1.1235553511894563 0.31037582843241446 0.93844949858512983 1.313375531665147 -2.8358593317498877 0.40863762243056395 0.69521785150568505 -1.5891998907185905 -0.21076973933472526 2.502971298176639 -0.47734399670161171 -1.782134593443548 -0.95631212267625287 0.32558937974092567 3.539162456627492 -3.6981490408129045 -2.5572862693519807 -2.749400186524642 1.7306853863517584 2.6296304860011559 -1.0000000180025095e-35 -0.34252829116582617 1.7747394784248358 0.87788684963229402 -1.8880666780863387 1.2383050702906402 1.3170634646894657 -2.6787100667322394 0.95990916867649989 1.7838783174119635 1.6188165977003821 -2.9684441225423934 -0.15408852003638715 0.59343362593502336 0.60269036689247479 0.16463654971652461 1.0689641598928823 -0.36320062687407001 -0.4845333346509782 1.3598211334304866 0.71174565184152538
decision_type=2 2 2 2 2 2 2 2 2 2 2 2 2 2 2 2 2 2 2 2 2 2 2 2 2 2 2 2 2 2 2 2 2 2 2 2 2 2 2 2 2 2 2 2 2 2 2 2 2 2 2 2 2 2 2 2 2 2 2 2 2 2
left_child=1 4 3 -3 5 6 -1 -6 16 -5 11 -2 -13 -7 15 -4 -9 -18 19 25 -21 22 -22 26 -25 -12 -23 -28 29 -27 54 -32 33 35 -35 37 -37 38 -20 -34 42 -42 43 44 46 -46 48 -48 49 -41 52 -52 53 -44 -30 56 -56 60 59 -59 -57 -62
right_child=10 2 14 9 7 13 -8 8 -10 -11 18 12 -14 -15 -16 -17 17 -19 32 20 21 23 -24 24 -26 28 27 -29 30 -31 31 -33 39 34 -36 36 -38 -39 -40 40 41 -43 50 -45 45 -47 47 -49 -50 -51 51 -53 -54 -55 55 57 -58 58 -60 -61 61 -63
leaf_value=11.280460478430758 15.707387052389468 20.815379253110962 2.4266073305137725 -6.4272458174032128 14.231744861069753 -0.52467705212522198 23.085598008987983 23.085598008988345 16.141399461601413 2.4266073305137725 -4.3191855440895228 -6.4272458174032154 -0.52467705212522198 -6.4272458174032128 -6.4272458174032154 -6.4272458174032145 17.183029243708749 23.085598008986896 -3.4759614347642169 1.6217115897940904 -6.4272458174032145 -6.4272458174032154 8.329176095791766 -6.4272458174032145 0.95096513919434855 -6.4272458174032145 -3.4759614347642169 -6.4272458174032128 -6.4219944217045688 -3.475961434764046 -3.4759614347642169 -6.4272458174032145 -6.4243129902792759 -6.4272458174032154 -1.2190969068636832 -6.4272458174032128 -3.4759614347641983 -6.4272458174032154 -6.4272458174032119 -6.4272458174032145 -3.4759614347642169 -6.4272458174032137 -3.4759614347642169 -3.9678421652040128 -0.52467705212522198 -6.4272458174032145 -3.4759614347641983 -6.4272458174032137 -6.4272458174032154 -3.4759614347642169 -6.4272458174032145 -3.4759614347642169 -6.4272458174032154 -6.4272458174032154 -3.475961434764046 -6.414346847199373 -6.4272458174032128 -6.4272458174032145 -6.4272458174032154 -0.52467705212522198 -3.4759614347641983 -6.4272458174032145
leaf_weight=0.01694177626632154 0.020330131519585848 0.022024309146218002 0.01694177626632154 0.022024309146218002 0.01694177626632154 0.01694177626632154 0.05929621693212539 0.22024309146218002 0.028801019652746618 0.01694177626632154 0.023718486772849157 0.7657682872377326 0.01694177626632154 0.022024309146218002 0.59465634694788494 0.052519506425596774 0.01694177626632154 0.018635953892953694 0.01694177626632154 0.018635953892953694 0.074543815571814775 0.59635052457451898 0.01694177626632154 0.069461282691918314 0.020330131519585848 0.040660263039171696 0.01694177626632154 0.01694177626632154 9.5212782616727001 0.016941776266320541 0.01694177626632154 0.088097236584872785 255.72594767436385 0.088097236584871008 0.028801019652746618 0.018635953892953694 0.016941776266321429 2.6344462094129995 0.028801019652747839 0.052519506425597107 0.01694177626632154 0.069461282691919091 0.01694177626632154 0.020330131519585737 0.01694177626632154 0.060990394558757433 0.016941776266321429 0.038966085412539542 1.8619012116687366 0.01694177626632154 0.14061674301046956 0.01694177626632154 11.628835229203101 0.22363144671544155 0.016941776266320541 3.8762784097343688 0.018635953892953694 0.04235444066580385 0.1728061179164796 0.01694177626632154 0.016941776266321429 0.1067331904778257
leaf_count=10 12 13 10 13 10 10 35 130 17 10 14 452 10 13 351 31 10 11 10 11 44 352 10 41 12 24 10 10 5620 10 10 52 150944 52 17 11 10 1555 17 31 10 41 10 12 10 36 10 23 1099 10 83 10 6864 132 10 2288 11 25 102 10 10 63
internal_value=-6.37716 3.6439 -5.18605 5.86977 19.0066 12.2353 20.4622 21.5934 22.0316 -2.57774 -6.41684 -5.74235 -6.29948 -3.86091 -6.20138 -4.26777 22.6947 20.2749 -6.41873 -6.35633 -5.70448 -5.87272 -3.69458 -6.14948 -4.75671 -6.39505 -6.34791 -4.9516 -6.39858 -5.55922 -6.40205 -5.95123 -6.42211 -6.33899 -5.14408 -6.39042 -5.02187 -6.40859 -5.33418 -6.42299 -6.39907 -5.84856 -6.40245 -6.30737 -6.3304 -5.14408 -6.37693 -5.53292 -6.40136 -5.70742 -6.41893 -6.1099 -6.42303 -6.21941 -6.40549 -6.36867 -5.02187 -6.37999 -5.9964 -4.7408 -6.40225 -6.02296
internal_weight=0 1.14188 0.725108 0.0609904 0.416768 0.115204 0.076238 0.301564 0.284622 0.0389661 288.366 0.80304 0.78271 0.0389661 0.664118 0.0694613 0.255821 0.0355777 287.563 14.8054 0.830147 0.811511 0.0914856 0.720025 0.0897914 13.9753 0.630234 0.0338836 13.9516 0.057602 13.894 0.105039 272.758 2.83266 0.116898 2.71577 0.0355777 2.68019 0.0457428 269.925 14.1989 0.0864031 14.1125 2.08553 2.0652 0.0779322 1.98727 0.0559079 1.93136 0.0694613 12.027 0.157559 11.8694 0.240573 13.7889 4.26763 0.0355777 4.23206 0.232102 0.0592962 3.99995 0.123675
internal_count=170884 674 428 36 246 68 45 178 168 23 170210 474 462 23 392 41 151 21 169736 8739 490 479 54 425 53 8249 372 20 8235 34 8201 62 160997 1672 69 1603 21 1582 27 159325 8381 51 8330 1231 1219 46 1173 33 1140 41 7099 93 7006 142 8139 2519 21 2498 137 35 2361 73
is_linear=0
shrinkage=1


end of trees

feature_importances:
Column_4=7
Column_1=6
Column_10=5
Column_12=5
Column_13=4
Column_15=4
Column_24=4
Column_7=3
Column_2=2
Column_3=2
Column_14=2
Column_16=2
Column_25=2
Column_29=2
Column_5=1
Column_8=1
Column_9=1
Column_18=1
Column_19=1
Column_20=1
Column_21=1
Column_22=1
Column_23=1
Column_26=1
Column_27=1
Column_28=1

parameters:
[boosting: gbdt]
[objective: binary]
[metric: binary_logloss]
[tree_learner: serial]
[device_type: cpu]
[data: ]
[valid: ]
[num_iterations: 10000]
[learning_rate: 0.05]
[num_leaves: 63]
[num_threads: 0]
[deterministic: 0]
[force_col_wise: 0]
[force_row_wise: 0]
[histogram_pool_size: -1]
[max_depth: -1]
[min_data_in_leaf: 10]
[min_sum_hessian_in_leaf: 0.001]
[bagging_fraction: 0.9]
[pos_bagging_fraction: 1]
[neg_bagging_fraction: 1]
[bagging_freq: 0]
[bagging_seed: 18467]
[feature_fraction: 0.9]
[feature_fraction_bynode: 1]
[feature_fraction_seed: 26500]
[extra_trees: 0]
[extra_seed: 15724]
[early_stopping_round: 0]
[first_metric_only: 0]
[max_delta_step: 0]
[lambda_l1: 0]
[lambda_l2: 0]
[linear_lambda: 0]
[min_gain_to_split: 0]
[drop_rate: 0.1]
[max_drop: 50]
[skip_drop: 0.5]
[xgboost_dart_mode: 0]
[uniform_drop: 0]
[drop_seed: 6334]
[top_rate: 0.2]
[other_rate: 0.1]
[min_data_per_group: 100]
[max_cat_threshold: 32]
[cat_l2: 10]
[cat_smooth: 10]
[max_cat_to_onehot: 4]
[top_k: 20]
[monotone_constraints: ]
[monotone_constraints_method: basic]
[monotone_penalty: 0]
[feature_contri: ]
[forcedsplits_filename: ]
[refit_decay_rate: 0.9]
[cegb_tradeoff: 1]
[cegb_penalty_split: 0]
[cegb_penalty_feature_lazy: ]
[cegb_penalty_feature_coupled: ]
[path_smooth: 0]
[interaction_constraints: ]
[verbosity: -1]
[saved_feature_importance_type: 0]
[linear_tree: 0]
[max_bin: 255]
[max_bin_by_feature: ]
[min_data_in_bin: 3]
[bin_construct_sample_cnt: 200000]
[data_random_seed: 41]
[is_enable_sparse: 1]
[enable_bundle: 1]
[use_missing: 1]
[zero_as_missing: 0]
[feature_pre_filter: 1]
[pre_partition: 0]
[two_round: 0]
[header: 0]
[label_column: ]
[weight_column: ]
[group_column: ]
[ignore_column: ]
[categorical_feature: ]
[forcedbins_filename: ]
[precise_float_parser: 0]
[objective_seed: 19169]
[num_class: 1]
[is_unbalance: 0]
[scale_pos_weight: 1]
[sigmoid: 1]
[boost_from_average: 1]
[reg_sqrt: 0]
[alpha: 0.9]
[fair_c: 1]
[poisson_max_delta_step: 0.7]
[tweedie_variance_power: 1.5]
[lambdarank_truncation_level: 30]
[lambdarank_norm: 1]
[label_gain: ]
[eval_at: ]
[multi_error_top_k: 1]
[auc_mu_weights: ]
[num_machines: 1]
[local_listen_port: 12400]
[time_out: 120]
[machine_list_filename: ]
[machines: ]
[gpu_platform_id: -1]
[gpu_device_id: -1]
[gpu_use_dp: 0]
[num_gpu: 1]

end of parameters

pandas_categorical:null
